Language model created by QuickLM on Sat Feb 15 10:12:36 EST 2014
Copyright (c) 1996-2010 Carnegie Mellon University and Alexander I. Rudnicky

The model is in standard ARPA format, designed by Doug Paul while he was at MITRE.

The code that was used to produce this language model is available in Open Source.
Please visit http://www.speech.cs.cmu.edu/tools/ for more information

The (fixed) discount mass is 0.5. The backoffs are computed using the ratio method.
This model based on a corpus of 6 sentences and 11 words

\data\
ngram 1=11
ngram 2=15
ngram 3=10

\1-grams:
-0.8653 </s> -0.3010
-0.8653 <s> -0.2374
-1.6435 CAN -0.2910
-1.6435 DO -0.2374
-1.6435 ELVIS -0.2374
-1.6435 I -0.2910
-1.6435 OPEN -0.2374
-1.6435 PAUSE -0.2374
-1.3424 PLAY -0.2258
-1.6435 STOP -0.2374
-1.6435 WHAT -0.2910

\2-grams:
-1.0792 <s> OPEN 0.0000
-1.0792 <s> PAUSE 0.0000
-0.7782 <s> PLAY 0.0000
-1.0792 <s> STOP 0.0000
-1.0792 <s> WHAT 0.0000
-0.3010 CAN I 0.0000
-0.3010 DO </s> -0.3010
-0.3010 ELVIS </s> -0.3010
-0.3010 I DO 0.0000
-0.3010 OPEN </s> -0.3010
-0.3010 PAUSE </s> -0.3010
-0.6021 PLAY </s> -0.3010
-0.6021 PLAY ELVIS 0.0000
-0.3010 STOP </s> -0.3010
-0.3010 WHAT CAN 0.0000

\3-grams:
-0.3010 <s> OPEN </s>
-0.3010 <s> PAUSE </s>
-0.6021 <s> PLAY </s>
-0.6021 <s> PLAY ELVIS
-0.3010 <s> STOP </s>
-0.3010 <s> WHAT CAN
-0.3010 CAN I DO
-0.3010 I DO </s>
-0.3010 PLAY ELVIS </s>
-0.3010 WHAT CAN I

\end\
