Language model created by QuickLM on Thu Mar 27 18:04:41 EDT 2014
Copyright (c) 1996-2010 Carnegie Mellon University and Alexander I. Rudnicky

The model is in standard ARPA format, designed by Doug Paul while he was at MITRE.

The code that was used to produce this language model is available in Open Source.
Please visit http://www.speech.cs.cmu.edu/tools/ for more information

The (fixed) discount mass is 0.5. The backoffs are computed using the ratio method.
This model based on a corpus of 30 sentences and 26 words

\data\
ngram 1=26
ngram 2=51
ngram 3=62

\1-grams:
-1.0414 </s> -0.3010
-1.0414 <s> -0.2449
-2.0414 A -0.2957
-1.7404 AM -0.2849
-2.2175 ASSISTANCE -0.2596
-1.9165 DONE -0.2596
-1.9165 FINISHED -0.2596
-2.2175 GUIDANCE -0.2596
-2.0414 HAND -0.2596
-2.0414 HELP -0.2582
-2.5185 HELPING -0.2971
-1.2398 I -0.2753
-1.7404 I'M -0.2849
-2.2175 IS -0.2957
-1.9165 IT -0.2596
-1.7404 LIKE -0.2890
-2.5185 ME -0.2596
-1.6734 NEED -0.2767
-1.6154 OK -0.2611
-2.2175 SERVICE -0.2596
-1.9165 SET -0.2596
-1.7404 SOME -0.2863
-2.2175 SUPPORT -0.2596
-2.2175 THAT -0.2984
-2.2175 THAT'S -0.2957
-1.7404 WOULD -0.2931

\2-grams:
-1.7782 <s> HELP -0.2218
-0.5740 <s> I 0.0000
-1.3010 <s> I'M 0.0000
-0.8751 <s> OK 0.0000
-1.7782 <s> THAT 0.0000
-1.7782 <s> THAT'S 0.0000
-0.4771 A HAND 0.0000
-0.7782 A HELPING 0.0000
-0.7782 AM DONE 0.0000
-0.7782 AM FINISHED 0.0000
-0.7782 AM SET 0.0000
-0.3010 ASSISTANCE </s> -0.3010
-0.3010 DONE </s> -0.3010
-0.3010 FINISHED </s> -0.3010
-0.3010 GUIDANCE </s> -0.3010
-0.3010 HAND </s> -0.3010
-0.4771 HELP </s> -0.3010
-0.7782 HELP ME 0.0000
-0.3010 HELPING HAND 0.0000
-0.8016 I AM 0.0000
-0.7347 I NEED -0.0000
-0.8016 I WOULD 0.0000
-0.7782 I'M DONE 0.0000
-0.7782 I'M FINISHED 0.0000
-0.7782 I'M SET 0.0000
-0.3010 IS IT 0.0000
-0.3010 IT </s> -0.3010
-1.0792 LIKE A -0.1249
-0.3802 LIKE SOME 0.0000
-0.3010 ME </s> -0.3010
-0.8451 NEED A 0.0000
-1.1461 NEED ASSISTANCE 0.0000
-1.1461 NEED GUIDANCE 0.0000
-1.1461 NEED HELP -0.1249
-1.1461 NEED SOME -0.2218
-1.1461 NEED SUPPORT 0.0000
-0.7270 OK I -0.2264
-0.7270 OK I'M 0.0000
-1.2041 OK THAT 0.0000
-1.2041 OK THAT'S 0.0000
-0.3010 SERVICE </s> -0.3010
-0.3010 SET </s> -0.3010
-1.0792 SOME ASSISTANCE 0.0000
-1.0792 SOME GUIDANCE 0.0000
-1.0792 SOME HELP -0.1249
-0.7782 SOME SERVICE 0.0000
-1.0792 SOME SUPPORT 0.0000
-0.3010 SUPPORT </s> -0.3010
-0.3010 THAT IS 0.0000
-0.3010 THAT'S IT 0.0000
-0.3010 WOULD LIKE 0.0000

\3-grams:
-0.3010 <s> HELP ME
-1.0280 <s> I AM
-0.6601 <s> I NEED
-0.7270 <s> I WOULD
-0.7782 <s> I'M DONE
-0.7782 <s> I'M FINISHED
-0.7782 <s> I'M SET
-0.7270 <s> OK I
-0.7270 <s> OK I'M
-1.2041 <s> OK THAT
-1.2041 <s> OK THAT'S
-0.3010 <s> THAT IS
-0.3010 <s> THAT'S IT
-0.3010 A HAND </s>
-0.3010 A HELPING HAND
-0.3010 AM DONE </s>
-0.3010 AM FINISHED </s>
-0.3010 AM SET </s>
-0.3010 HELP ME </s>
-0.3010 HELPING HAND </s>
-0.7782 I AM DONE
-0.7782 I AM FINISHED
-0.7782 I AM SET
-0.8451 I NEED A
-1.1461 I NEED ASSISTANCE
-1.1461 I NEED GUIDANCE
-1.1461 I NEED HELP
-1.1461 I NEED SOME
-1.1461 I NEED SUPPORT
-0.3010 I WOULD LIKE
-0.3010 I'M DONE </s>
-0.3010 I'M FINISHED </s>
-0.3010 I'M SET </s>
-0.3010 IS IT </s>
-0.3010 LIKE A HAND
-1.0000 LIKE SOME ASSISTANCE
-1.0000 LIKE SOME GUIDANCE
-1.0000 LIKE SOME HELP
-1.0000 LIKE SOME SERVICE
-1.0000 LIKE SOME SUPPORT
-0.6021 NEED A HAND
-0.6021 NEED A HELPING
-0.3010 NEED ASSISTANCE </s>
-0.3010 NEED GUIDANCE </s>
-0.3010 NEED HELP </s>
-0.3010 NEED SOME SERVICE
-0.3010 NEED SUPPORT </s>
-0.3010 OK I AM
-0.7782 OK I'M DONE
-0.7782 OK I'M FINISHED
-0.7782 OK I'M SET
-0.3010 OK THAT IS
-0.3010 OK THAT'S IT
-0.3010 SOME ASSISTANCE </s>
-0.3010 SOME GUIDANCE </s>
-0.3010 SOME HELP </s>
-0.3010 SOME SERVICE </s>
-0.3010 SOME SUPPORT </s>
-0.3010 THAT IS IT
-0.3010 THAT'S IT </s>
-1.0792 WOULD LIKE A
-0.3802 WOULD LIKE SOME

\end\
