Language model created by QuickLM on Sat Mar  1 18:07:56 EST 2014
Copyright (c) 1996-2010 Carnegie Mellon University and Alexander I. Rudnicky

The model is in standard ARPA format, designed by Doug Paul while he was at MITRE.

The code that was used to produce this language model is available in Open Source.
Please visit http://www.speech.cs.cmu.edu/tools/ for more information

The (fixed) discount mass is 0.5. The backoffs are computed using the ratio method.
This model based on a corpus of 9 sentences and 15 words

\data\
ngram 1=15
ngram 2=22
ngram 3=16

\1-grams:
-0.8783 </s> -0.3010
-0.8783 <s> -0.2394
-1.8325 CAN -0.2946
-1.8325 CLOSE -0.2814
-1.8325 DO -0.2394
-1.8325 GREET -0.2394
-1.8325 I -0.2946
-1.8325 IS -0.2814
-1.8325 NEXT -0.2394
-1.8325 OPEN -0.2814
-1.8325 PAUSE -0.2394
-1.8325 PLAY -0.2394
-1.8325 PREVIOUS -0.2394
-1.3554 VLC -0.2394
-1.5315 WHAT -0.2881

\2-grams:
-1.2553 <s> CLOSE 0.0000
-1.2553 <s> GREET 0.0000
-1.2553 <s> NEXT 0.0000
-1.2553 <s> OPEN 0.0000
-1.2553 <s> PAUSE 0.0000
-1.2553 <s> PLAY 0.0000
-1.2553 <s> PREVIOUS 0.0000
-0.9542 <s> WHAT 0.0000
-0.3010 CAN I 0.0000
-0.3010 CLOSE VLC 0.0000
-0.3010 DO </s> -0.3010
-0.3010 GREET </s> -0.3010
-0.3010 I DO 0.0000
-0.3010 IS VLC 0.0000
-0.3010 NEXT </s> -0.3010
-0.3010 OPEN VLC 0.0000
-0.3010 PAUSE </s> -0.3010
-0.3010 PLAY </s> -0.3010
-0.3010 PREVIOUS </s> -0.3010
-0.3010 VLC </s> -0.3010
-0.6021 WHAT CAN 0.0000
-0.6021 WHAT IS 0.0000

\3-grams:
-0.3010 <s> CLOSE VLC
-0.3010 <s> GREET </s>
-0.3010 <s> NEXT </s>
-0.3010 <s> OPEN VLC
-0.3010 <s> PAUSE </s>
-0.3010 <s> PLAY </s>
-0.3010 <s> PREVIOUS </s>
-0.6021 <s> WHAT CAN
-0.6021 <s> WHAT IS
-0.3010 CAN I DO
-0.3010 CLOSE VLC </s>
-0.3010 I DO </s>
-0.3010 IS VLC </s>
-0.3010 OPEN VLC </s>
-0.3010 WHAT CAN I
-0.3010 WHAT IS VLC

\end\
